<?xml version="1.0"?>
<opencv_storage>
<cascade>
  <stageType>BOOST</stageType>
  <featureType>HAAR</featureType>
  <height>24</height>
  <width>24</width>
  <stageParams>
    <boostType>GAB</boostType>
    <minHitRate>9.9500000476837158e-01</minHitRate>
    <maxFalseAlarm>5.0000000000000000e-01</maxFalseAlarm>
    <weightTrimRate>9.4999998807907104e-01</weightTrimRate>
    <maxDepth>1</maxDepth>
    <maxWeakCount>100</maxWeakCount></stageParams>
  <featureParams>
    <maxCatCount>0</maxCatCount>
    <featSize>1</featSize>
    <mode>BASIC</mode></featureParams>
  <stageNum>5</stageNum>
  <stages>
    <!-- stage 0 -->
    <_>
      <maxWeakCount>3</maxWeakCount>
      <stageThreshold>-1.7717391252517700e+00</stageThreshold>
      <weakClassifiers>
        <_>
          <internalNodes>
            0 -1 7 -3.9634653367102146e-03</internalNodes>
          <leafValues>
            8.0000001192092896e-01 -9.7626113891601563e-01</leafValues></_>
        <_>
          <internalNodes>
            0 -1 14 4.1046546539291739e-04</internalNodes>
          <leafValues>
            -9.7336483001708984e-01 3.3485731482505798e-01</leafValues></_>
        <_>
          <internalNodes>
            0 -1 11 2.4402193725109100e-02</internalNodes>
          <leafValues>
            -9.9523019790649414e-01 1.7788681387901306e-01</leafValues></_></weakClassifiers></_>
    <!-- stage 1 -->
    <_>
      <maxWeakCount>4</maxWeakCount>
      <stageThreshold>-2.0912506580352783e+00</stageThreshold>
      <weakClassifiers>
        <_>
          <internalNodes>
            0 -1 2 -1.2342072091996670e-02</internalNodes>
          <leafValues>
            1. -9.6656835079193115e-01</leafValues></_>
        <_>
          <internalNodes>
            0 -1 1 -1.7479568719863892e-02</internalNodes>
          <leafValues>
            4.6009635925292969e-01 -8.9288032054901123e-01</leafValues></_>
        <_>
          <internalNodes>
            0 -1 6 4.2446597944945097e-04</internalNodes>
          <leafValues>
            -7.9279315471649170e-01 5.4671400785446167e-01</leafValues></_>
        <_>
          <internalNodes>
            0 -1 12 7.6792307663708925e-04</internalNodes>
          <leafValues>
            -7.7851599454879761e-01 5.7631057500839233e-01</leafValues></_></weakClassifiers></_>
    <!-- stage 2 -->
    <_>
      <maxWeakCount>4</maxWeakCount>
      <stageThreshold>-2.2612061500549316e+00</stageThreshold>
      <weakClassifiers>
        <_>
          <internalNodes>
            0 -1 4 -1.0752688348293304e-01</internalNodes>
          <leafValues>
            -4.4278816062563511e-17 -9.6834814548492432e-01</leafValues></_>
        <_>
          <internalNodes>
            0 -1 13 -4.7554061748087406e-03</internalNodes>
          <leafValues>
            -5.7678911834955215e-02 -9.0138524770736694e-01</leafValues></_>
        <_>
          <internalNodes>
            0 -1 16 3.4463070333003998e-02</internalNodes>
          <leafValues>
            -8.6441022157669067e-01 1.8652006983757019e-01</leafValues></_>
        <_>
          <internalNodes>
            0 -1 8 -5.3359540179371834e-03</internalNodes>
          <leafValues>
            6.1067616939544678e-01 -5.7799273729324341e-01</leafValues></_></weakClassifiers></_>
    <!-- stage 3 -->
    <_>
      <maxWeakCount>3</maxWeakCount>
      <stageThreshold>-1.6765940189361572e+00</stageThreshold>
      <weakClassifiers>
        <_>
          <internalNodes>
            0 -1 0 5.2098803222179413e-02</internalNodes>
          <leafValues>
            -9.6270853281021118e-01 1.</leafValues></_>
        <_>
          <internalNodes>
            0 -1 10 -4.8391213640570641e-03</internalNodes>
          <leafValues>
            4.2408268898725510e-02 -8.7639790773391724e-01</leafValues></_>
        <_>
          <internalNodes>
            0 -1 9 2.1184298675507307e-03</internalNodes>
          <leafValues>
            -7.5629377365112305e-01 3.6740574240684509e-01</leafValues></_></weakClassifiers></_>
    <!-- stage 4 -->
    <_>
      <maxWeakCount>3</maxWeakCount>
      <stageThreshold>-1.7077876329421997e+00</stageThreshold>
      <weakClassifiers>
        <_>
          <internalNodes>
            0 -1 5 1.8050575256347656e-01</internalNodes>
          <leafValues>
            -9.6463656425476074e-01 1.</leafValues></_>
        <_>
          <internalNodes>
            0 -1 15 4.1318023577332497e-03</internalNodes>
          <leafValues>
            -8.8896811008453369e-01 4.4332645833492279e-02</leafValues></_>
        <_>
          <internalNodes>
            0 -1 3 -1.6893565654754639e-01</internalNodes>
          <leafValues>
            4.5919489860534668e-01 -7.8748381137847900e-01</leafValues></_></weakClassifiers></_></stages>
  <features>
    <_>
      <rects>
        <_>
          0 14 4 8 -1.</_>
        <_>
          0 14 2 4 2.</_>
        <_>
          2 18 2 4 2.</_></rects>
      <tilted>0</tilted></_>
    <_>
      <rects>
        <_>
          1 1 4 13 -1.</_>
        <_>
          3 1 2 13 2.</_></rects>
      <tilted>0</tilted></_>
    <_>
      <rects>
        <_>
          1 13 2 5 -1.</_>
        <_>
          2 13 1 5 2.</_></rects>
      <tilted>0</tilted></_>
    <_>
      <rects>
        <_>
          2 0 11 14 -1.</_>
        <_>
          2 7 11 7 2.</_></rects>
      <tilted>0</tilted></_>
    <_>
      <rects>
        <_>
          2 10 5 9 -1.</_>
        <_>
          2 13 5 3 3.</_></rects>
      <tilted>0</tilted></_>
    <_>
      <rects>
        <_>
          3 14 14 6 -1.</_>
        <_>
          3 17 14 3 2.</_></rects>
      <tilted>0</tilted></_>
    <_>
      <rects>
        <_>
          5 7 3 2 -1.</_>
        <_>
          6 7 1 2 3.</_></rects>
      <tilted>0</tilted></_>
    <_>
      <rects>
        <_>
          6 5 2 6 -1.</_>
        <_>
          7 5 1 6 2.</_></rects>
      <tilted>0</tilted></_>
    <_>
      <rects>
        <_>
          6 6 3 13 -1.</_>
        <_>
          7 6 1 13 3.</_></rects>
      <tilted>0</tilted></_>
    <_>
      <rects>
        <_>
          7 9 6 3 -1.</_>
        <_>
          9 9 2 3 3.</_></rects>
      <tilted>0</tilted></_>
    <_>
      <rects>
        <_>
          8 7 2 15 -1.</_>
        <_>
          9 7 1 15 2.</_></rects>
      <tilted>0</tilted></_>
    <_>
      <rects>
        <_>
          10 9 14 10 -1.</_>
        <_>
          17 9 7 10 2.</_></rects>
      <tilted>0</tilted></_>
    <_>
      <rects>
        <_>
          10 15 5 3 -1.</_>
        <_>
          10 16 5 1 3.</_></rects>
      <tilted>0</tilted></_>
    <_>
      <rects>
        <_>
          11 8 3 12 -1.</_>
        <_>
          12 8 1 12 3.</_></rects>
      <tilted>0</tilted></_>
    <_>
      <rects>
        <_>
          11 11 4 2 -1.</_>
        <_>
          13 11 2 2 2.</_></rects>
      <tilted>0</tilted></_>
    <_>
      <rects>
        <_>
          12 22 8 1 -1.</_>
        <_>
          16 22 4 1 2.</_></rects>
      <tilted>0</tilted></_>
    <_>
      <rects>
        <_>
          13 0 10 16 -1.</_>
        <_>
          18 0 5 16 2.</_></rects>
      <tilted>0</tilted></_></features></cascade>
</opencv_storage>
